digraph Tree {
node [shape=box, style="filled", color="black"] ;
0 [label="color_intensity <= 3.45\ngini = 0.659\nsamples = 142\nvalue = [44, 57, 41]\nclass = class_1", fillcolor="#e5fcee"] ;
1 [label="gini = 0.0\nsamples = 44\nvalue = [0, 44, 0]\nclass = class_1", fillcolor="#39e581"] ;
0 -> 1 [labeldistance=2.5, labelangle=45, headlabel="True"] ;
2 [label="flavanoids <= 1.4\ngini = 0.606\nsamples = 98\nvalue = [44, 13, 41]\nclass = class_0", fillcolor="#fef8f5"] ;
0 -> 2 [labeldistance=2.5, labelangle=-45, headlabel="False"] ;
3 [label="alcohol <= 12.1\ngini = 0.046\nsamples = 42\nvalue = [0, 1, 41]\nclass = class_2", fillcolor="#843ee6"] ;
2 -> 3 ;
4 [label="gini = 0.0\nsamples = 1\nvalue = [0, 1, 0]\nclass = class_1", fillcolor="#39e581"] ;
3 -> 4 ;
5 [label="gini = 0.0\nsamples = 41\nvalue = [0, 0, 41]\nclass = class_2", fillcolor="#8139e5"] ;
3 -> 5 ;
6 [label="proline <= 724.5\ngini = 0.337\nsamples = 56\nvalue = [44, 12, 0]\nclass = class_0", fillcolor="#eca36f"] ;
2 -> 6 ;
7 [label="gini = 0.0\nsamples = 12\nvalue = [0, 12, 0]\nclass = class_1", fillcolor="#39e581"] ;
6 -> 7 ;
8 [label="gini = 0.0\nsamples = 44\nvalue = [44, 0, 0]\nclass = class_0", fillcolor="#e58139"] ;
6 -> 8 ;
}